FANN_FLO_2.1
num_layers=3
learning_rate=0.700000
connection_rate=1.000000
network_type=0
learning_momentum=0.700000
training_algorithm=2
train_error_function=1
train_stop_function=0
cascade_output_change_fraction=0.010000
quickprop_decay=-0.000100
quickprop_mu=1.750000
rprop_increase_factor=1.200000
rprop_decrease_factor=0.500000
rprop_delta_min=0.000000
rprop_delta_max=50.000000
rprop_delta_zero=0.100000
cascade_output_stagnation_epochs=12
cascade_candidate_change_fraction=0.010000
cascade_candidate_stagnation_epochs=12
cascade_max_out_epochs=150
cascade_min_out_epochs=50
cascade_max_cand_epochs=150
cascade_min_cand_epochs=50
cascade_num_candidate_groups=2
bit_fail_limit=3.49999994039535522461e-01
cascade_candidate_limit=1.00000000000000000000e+03
cascade_weight_multiplier=4.00000005960464477539e-01
cascade_activation_functions_count=10
cascade_activation_functions=3 5 7 8 10 11 14 15 16 17 
cascade_activation_steepnesses_count=4
cascade_activation_steepnesses=2.50000000000000000000e-01 5.00000000000000000000e-01 7.50000000000000000000e-01 1.00000000000000000000e+00 
layer_sizes=5 11 4 
scale_included=0
neurons (num_inputs, activation_function, activation_steepness)=(0, 0, 0.00000000000000000000e+00) (0, 0, 0.00000000000000000000e+00) (0, 0, 0.00000000000000000000e+00) (0, 0, 0.00000000000000000000e+00) (0, 0, 0.00000000000000000000e+00) (5, 3, 5.00000000000000000000e-01) (5, 3, 5.00000000000000000000e-01) (5, 3, 5.00000000000000000000e-01) (5, 3, 5.00000000000000000000e-01) (5, 3, 5.00000000000000000000e-01) (5, 3, 5.00000000000000000000e-01) (5, 3, 5.00000000000000000000e-01) (5, 3, 5.00000000000000000000e-01) (5, 3, 5.00000000000000000000e-01) (5, 3, 5.00000000000000000000e-01) (0, 3, 0.00000000000000000000e+00) (11, 3, 5.00000000000000000000e-01) (11, 3, 5.00000000000000000000e-01) (11, 3, 5.00000000000000000000e-01) (0, 3, 0.00000000000000000000e+00) 
connections (connected_to_neuron, weight)=(0, 2.30325489044189453125e+01) (1, -2.32124900817871093750e+01) (2, 1.49999987792968750000e+03) (3, -2.25693607330322265625e+01) (4, -6.18007555603981018066e-02) (0, 1.53175601959228515625e+01) (1, -1.87737560272216796875e+01) (2, 7.95012084960937500000e+02) (3, -4.89727258682250976562e+00) (4, -5.61140203475952148438e+00) (0, -1.95557537078857421875e+01) (1, 1.38095006942749023438e+01) (2, 3.41171051025390625000e+02) (3, -4.29309129714965820312e+00) (4, -3.67761135101318359375e-01) (0, 3.69514122009277343750e+01) (1, -1.55983209609985351562e+01) (2, -3.33296417236328125000e+02) (3, -3.50989532470703125000e+00) (4, -1.19159507751464843750e+00) (0, 9.01691722869873046875e+00) (1, -4.08925895690917968750e+01) (2, 1.49999914550781250000e+03) (3, -5.41565036773681640625e+00) (4, -3.09486246109008789062e+00) (0, 2.73524818420410156250e+01) (1, 7.88209609985351562500e+01) (2, -1.47500000000000000000e+03) (3, 1.00983774662017822266e+00) (4, -1.06800107955932617188e+01) (0, 1.16954851150512695312e+01) (1, -1.19031381607055664062e+01) (2, 2.32010452270507812500e+02) (3, -1.12380850315093994141e+00) (4, -8.46846103668212890625e+00) (0, -2.50940093994140625000e+01) (1, 2.00697116851806640625e+01) (2, 2.58985504150390625000e+02) (3, -4.83363389968872070312e+00) (4, 2.45084667205810546875e+00) (0, 7.95655334472656250000e+02) (1, -4.68193321228027343750e+01) (2, 5.42853637695312500000e+02) (3, 1.73651957511901855469e+00) (4, -7.49669952392578125000e+01) (0, -5.73247814178466796875e+00) (1, -1.43056287765502929688e+01) (2, 6.69181518554687500000e+02) (3, -1.32034645080566406250e+01) (4, 1.05714902877807617188e+01) (5, 4.99416303634643554688e+00) (6, -5.13906717300415039062e+00) (7, 9.68068093061447143555e-02) (8, -8.33578109741210937500e-01) (9, 6.26044368743896484375e+00) (10, 1.07469868659973144531e+00) (11, 1.09182405471801757812e+01) (12, 1.00735414028167724609e+00) (13, -4.79327499866485595703e-01) (14, -1.33376193046569824219e+00) (15, -4.58754825592041015625e+00) (5, -7.38156557083129882812e-01) (6, -1.16402588784694671631e-01) (7, 5.67718744277954101562e+00) (8, -8.61279845237731933594e-01) (9, -4.07087469100952148438e+00) (10, 2.59980440139770507812e+00) (11, -1.84450054168701171875e+01) (12, -7.28991174697875976562e+00) (13, -1.18874275684356689453e+00) (14, 7.87327575683593750000e+00) (15, -9.99478876590728759766e-01) (5, -1.14796276092529296875e+01) (6, 1.68906097412109375000e+01) (7, -1.61408405303955078125e+01) (8, 1.62246668338775634766e+00) (9, -3.80545067787170410156e+00) (10, -8.07642841339111328125e+00) (11, -4.03988409042358398438e+00) (12, 1.35490360260009765625e+01) (13, 6.28144979476928710938e+00) (14, -9.59842491149902343750e+00) (15, 5.98851501941680908203e-01) 
