FANN_FLO_2.1
num_layers=3
learning_rate=0.730000
connection_rate=1.000000
network_type=0
learning_momentum=0.000000
training_algorithm=2
train_error_function=1
train_stop_function=0
cascade_output_change_fraction=0.010000
quickprop_decay=-0.000100
quickprop_mu=1.750000
rprop_increase_factor=1.200000
rprop_decrease_factor=0.500000
rprop_delta_min=0.000000
rprop_delta_max=50.000000
rprop_delta_zero=0.100000
cascade_output_stagnation_epochs=12
cascade_candidate_change_fraction=0.010000
cascade_candidate_stagnation_epochs=12
cascade_max_out_epochs=150
cascade_min_out_epochs=50
cascade_max_cand_epochs=150
cascade_min_cand_epochs=50
cascade_num_candidate_groups=2
bit_fail_limit=3.49999994039535522461e-01
cascade_candidate_limit=1.00000000000000000000e+03
cascade_weight_multiplier=4.00000005960464477539e-01
cascade_activation_functions_count=10
cascade_activation_functions=3 5 7 8 10 11 14 15 16 17 
cascade_activation_steepnesses_count=4
cascade_activation_steepnesses=2.50000000000000000000e-01 5.00000000000000000000e-01 7.50000000000000000000e-01 1.00000000000000000000e+00 
layer_sizes=5 5 4 
scale_included=0
neurons (num_inputs, activation_function, activation_steepness)=(0, 0, 0.00000000000000000000e+00) (0, 0, 0.00000000000000000000e+00) (0, 0, 0.00000000000000000000e+00) (0, 0, 0.00000000000000000000e+00) (0, 0, 0.00000000000000000000e+00) (5, 3, 5.00000000000000000000e-01) (5, 3, 5.00000000000000000000e-01) (5, 3, 5.00000000000000000000e-01) (5, 3, 5.00000000000000000000e-01) (0, 3, 0.00000000000000000000e+00) (5, 3, 5.00000000000000000000e-01) (5, 3, 5.00000000000000000000e-01) (5, 3, 5.00000000000000000000e-01) (0, 3, 0.00000000000000000000e+00) 
connections (connected_to_neuron, weight)=(0, 1.58519995212554931641e+00) (1, -7.08010435104370117188e+00) (2, 3.17505096435546875000e+02) (3, -1.37461996078491210938e+01) (4, 9.45495796203613281250e+00) (0, -6.46180496215820312500e+01) (1, 5.08409690856933593750e+01) (2, 2.28363098144531250000e+02) (3, -8.05977535247802734375e+00) (4, 8.74845087528228759766e-01) (0, -5.84864082336425781250e+01) (1, 4.58433609008789062500e+01) (2, 2.10387451171875000000e+02) (3, -7.06178474426269531250e+00) (4, 5.17271518707275390625e-01) (0, 2.56121778488159179688e+00) (1, -4.83316612243652343750e+00) (2, 1.61413101196289062500e+02) (3, 5.73893710970878601074e-02) (4, -7.38217449188232421875e+00) (5, 4.03688573837280273438e+00) (6, -1.22444213867187500000e+02) (7, 1.25279495239257812500e+02) (8, 2.35874786376953125000e+01) (9, -3.68076896667480468750e+00) (5, 1.89496606588363647461e-01) (6, 1.12510330200195312500e+02) (7, -1.14840637207031250000e+02) (8, -6.76848983764648437500e+01) (9, -1.62651136517524719238e-01) (5, -2.07866358757019042969e+00) (6, 1.08388032913208007812e+01) (7, -1.40309267044067382812e+01) (8, -1.32788085937500000000e+01) (9, 5.56574761867523193359e-01) 
